Language model created by QuickLM on Fri Nov 21 08:33:22 EST 2014
Copyright (c) 1996-2010 Carnegie Mellon University and Alexander I. Rudnicky

The model is in standard ARPA format, designed by Doug Paul while he was at MITRE.

The code that was used to produce this language model is available in Open Source.
Please visit http://www.speech.cs.cmu.edu/tools/ for more information

The (fixed) discount mass is 0.5. The backoffs are computed using the ratio method.
This model based on a corpus of 21 sentences and 27 words

\data\
ngram 1=27
ngram 2=46
ngram 3=35

\1-grams:
-0.8653 </s> -0.3010
-0.8653 <s> -0.2374
-2.1875 ACTOR -0.2374
-1.1461 ADD -0.2688
-2.1875 ARTIFACT -0.2374
-2.1875 ATTRIBUTE -0.2374
-2.1875 BACK -0.2374
-2.1875 CANCEL -0.2374
-2.1875 CASE -0.2374
-2.1875 CHANGE -0.2982
-2.1875 CLASS -0.2374
-2.1875 CLEAR -0.2982
-2.1875 FOCUS -0.2374
-2.1875 HOLD -0.2374
-2.1875 INTERFACE -0.2374
-2.1875 LINK -0.2374
-2.1875 METHOD -0.2374
-2.1875 NEXT -0.2374
-2.1875 NODE -0.2374
-2.1875 PACKAGE -0.2374
-2.1875 REDO -0.2374
-2.1875 REMOVE -0.2374
-2.1875 SAVE -0.2374
-2.1875 SUBSYSTEM -0.2374
-2.1875 TYPE -0.2374
-2.1875 UNDO -0.2374
-2.1875 USE -0.2982

\2-grams:
-0.5819 <s> ADD 0.0000
-1.6232 <s> BACK 0.0000
-1.6232 <s> CANCEL 0.0000
-1.6232 <s> CHANGE 0.0000
-1.6232 <s> CLEAR 0.0000
-1.6232 <s> HOLD 0.0000
-1.6232 <s> NEXT 0.0000
-1.6232 <s> REDO 0.0000
-1.6232 <s> REMOVE 0.0000
-1.6232 <s> SAVE 0.0000
-1.6232 <s> UNDO 0.0000
-0.3010 ACTOR </s> -0.3010
-1.3424 ADD ACTOR 0.0000
-1.3424 ADD ARTIFACT 0.0000
-1.3424 ADD ATTRIBUTE 0.0000
-1.3424 ADD CLASS 0.0000
-1.3424 ADD INTERFACE 0.0000
-1.3424 ADD LINK 0.0000
-1.3424 ADD METHOD 0.0000
-1.3424 ADD NODE 0.0000
-1.3424 ADD PACKAGE 0.0000
-1.3424 ADD SUBSYSTEM 0.0000
-1.3424 ADD USE 0.0000
-0.3010 ARTIFACT </s> -0.3010
-0.3010 ATTRIBUTE </s> -0.3010
-0.3010 BACK </s> -0.3010
-0.3010 CANCEL </s> -0.3010
-0.3010 CASE </s> -0.3010
-0.3010 CHANGE TYPE 0.0000
-0.3010 CLASS </s> -0.3010
-0.3010 CLEAR FOCUS 0.0000
-0.3010 FOCUS </s> -0.3010
-0.3010 HOLD </s> -0.3010
-0.3010 INTERFACE </s> -0.3010
-0.3010 LINK </s> -0.3010
-0.3010 METHOD </s> -0.3010
-0.3010 NEXT </s> -0.3010
-0.3010 NODE </s> -0.3010
-0.3010 PACKAGE </s> -0.3010
-0.3010 REDO </s> -0.3010
-0.3010 REMOVE </s> -0.3010
-0.3010 SAVE </s> -0.3010
-0.3010 SUBSYSTEM </s> -0.3010
-0.3010 TYPE </s> -0.3010
-0.3010 UNDO </s> -0.3010
-0.3010 USE CASE 0.0000

\3-grams:
-1.3424 <s> ADD ACTOR
-1.3424 <s> ADD ARTIFACT
-1.3424 <s> ADD ATTRIBUTE
-1.3424 <s> ADD CLASS
-1.3424 <s> ADD INTERFACE
-1.3424 <s> ADD LINK
-1.3424 <s> ADD METHOD
-1.3424 <s> ADD NODE
-1.3424 <s> ADD PACKAGE
-1.3424 <s> ADD SUBSYSTEM
-1.3424 <s> ADD USE
-0.3010 <s> BACK </s>
-0.3010 <s> CANCEL </s>
-0.3010 <s> CHANGE TYPE
-0.3010 <s> CLEAR FOCUS
-0.3010 <s> HOLD </s>
-0.3010 <s> NEXT </s>
-0.3010 <s> REDO </s>
-0.3010 <s> REMOVE </s>
-0.3010 <s> SAVE </s>
-0.3010 <s> UNDO </s>
-0.3010 ADD ACTOR </s>
-0.3010 ADD ARTIFACT </s>
-0.3010 ADD ATTRIBUTE </s>
-0.3010 ADD CLASS </s>
-0.3010 ADD INTERFACE </s>
-0.3010 ADD LINK </s>
-0.3010 ADD METHOD </s>
-0.3010 ADD NODE </s>
-0.3010 ADD PACKAGE </s>
-0.3010 ADD SUBSYSTEM </s>
-0.3010 ADD USE CASE
-0.3010 CHANGE TYPE </s>
-0.3010 CLEAR FOCUS </s>
-0.3010 USE CASE </s>

\end\
