Language model created by QuickLM on Tue Oct  7 15:02:37 EDT 2014
Copyright (c) 1996-2010 Carnegie Mellon University and Alexander I. Rudnicky

The model is in standard ARPA format, designed by Doug Paul while he was at MITRE.

The code that was used to produce this language model is available in Open Source.
Please visit http://www.speech.cs.cmu.edu/tools/ for more information

The (fixed) discount mass is 0.5. The backoffs are computed using the ratio method.
This model based on a corpus of 46 sentences and 21 words

\data\
ngram 1=21
ngram 2=65
ngram 3=83

\1-grams:
-0.9124 </s> -0.3010
-0.9124 <s> -0.1986
-1.9731 ACTOR -0.2444
-1.2328 ADD -0.2323
-1.9731 ARTIFACT -0.2444
-1.9731 ATTRIBUTE -0.2444
-1.9731 CASE -0.2444
-1.9731 CLASS -0.2444
-2.5752 CLEAR -0.2999
-1.9731 INTERFACE -0.2444
-1.9731 LINK -0.2444
-1.9731 METHOD -0.2444
-1.5338 NEW -0.2470
-1.9731 NODE -0.2444
-1.9731 PACKAGE -0.2444
-2.5752 REMOVE -0.2999
-1.5338 SELECT -0.2470
-2.5752 SELECTED -0.2444
-2.5752 SELECTION -0.2444
-1.9731 SUBSYSTEM -0.2444
-1.9731 USE -0.2964

\2-grams:
-1.9638 <s> ACTOR 0.0000
-0.6214 <s> ADD -0.0000
-1.9638 <s> ARTIFACT 0.0000
-1.9638 <s> ATTRIBUTE 0.0000
-1.9638 <s> CLASS 0.0000
-1.9638 <s> CLEAR 0.0000
-1.9638 <s> INTERFACE 0.0000
-1.9638 <s> LINK 0.0000
-1.9638 <s> METHOD 0.0000
-1.9638 <s> NODE 0.0000
-1.9638 <s> PACKAGE 0.0000
-1.9638 <s> REMOVE 0.0000
-0.9224 <s> SELECT 0.0000
-1.9638 <s> SUBSYSTEM 0.0000
-1.9638 <s> USE 0.0000
-0.3010 ACTOR </s> -0.3010
-1.6435 ADD ACTOR 0.0000
-1.6435 ADD ARTIFACT 0.0000
-1.6435 ADD ATTRIBUTE 0.0000
-1.6435 ADD CLASS 0.0000
-1.6435 ADD INTERFACE 0.0000
-1.6435 ADD LINK 0.0000
-1.6435 ADD METHOD 0.0000
-0.6021 ADD NEW 0.0000
-1.6435 ADD NODE 0.0000
-1.6435 ADD PACKAGE 0.0000
-1.6435 ADD SUBSYSTEM 0.0000
-1.6435 ADD USE 0.0000
-0.3010 ARTIFACT </s> -0.3010
-0.3010 ATTRIBUTE </s> -0.3010
-0.3010 CASE </s> -0.3010
-0.3010 CLASS </s> -0.3010
-0.3010 CLEAR SELECTION 0.0000
-0.3010 INTERFACE </s> -0.3010
-0.3010 LINK </s> -0.3010
-0.3010 METHOD </s> -0.3010
-1.3424 NEW ACTOR 0.0000
-1.3424 NEW ARTIFACT 0.0000
-1.3424 NEW ATTRIBUTE 0.0000
-1.3424 NEW CLASS 0.0000
-1.3424 NEW INTERFACE 0.0000
-1.3424 NEW LINK 0.0000
-1.3424 NEW METHOD 0.0000
-1.3424 NEW NODE 0.0000
-1.3424 NEW PACKAGE 0.0000
-1.3424 NEW SUBSYSTEM 0.0000
-1.3424 NEW USE 0.0000
-0.3010 NODE </s> -0.3010
-0.3010 PACKAGE </s> -0.3010
-0.3010 REMOVE SELECTED 0.0000
-1.3424 SELECT ACTOR 0.0000
-1.3424 SELECT ARTIFACT 0.0000
-1.3424 SELECT ATTRIBUTE 0.0000
-1.3424 SELECT CLASS 0.0000
-1.3424 SELECT INTERFACE 0.0000
-1.3424 SELECT LINK 0.0000
-1.3424 SELECT METHOD 0.0000
-1.3424 SELECT NODE 0.0000
-1.3424 SELECT PACKAGE 0.0000
-1.3424 SELECT SUBSYSTEM 0.0000
-1.3424 SELECT USE 0.0000
-0.3010 SELECTED </s> -0.3010
-0.3010 SELECTION </s> -0.3010
-0.3010 SUBSYSTEM </s> -0.3010
-0.3010 USE CASE 0.0000

\3-grams:
-0.3010 <s> ACTOR </s>
-1.6435 <s> ADD ACTOR
-1.6435 <s> ADD ARTIFACT
-1.6435 <s> ADD ATTRIBUTE
-1.6435 <s> ADD CLASS
-1.6435 <s> ADD INTERFACE
-1.6435 <s> ADD LINK
-1.6435 <s> ADD METHOD
-0.6021 <s> ADD NEW
-1.6435 <s> ADD NODE
-1.6435 <s> ADD PACKAGE
-1.6435 <s> ADD SUBSYSTEM
-1.6435 <s> ADD USE
-0.3010 <s> ARTIFACT </s>
-0.3010 <s> ATTRIBUTE </s>
-0.3010 <s> CLASS </s>
-0.3010 <s> CLEAR SELECTION
-0.3010 <s> INTERFACE </s>
-0.3010 <s> LINK </s>
-0.3010 <s> METHOD </s>
-0.3010 <s> NODE </s>
-0.3010 <s> PACKAGE </s>
-0.3010 <s> REMOVE SELECTED
-1.3424 <s> SELECT ACTOR
-1.3424 <s> SELECT ARTIFACT
-1.3424 <s> SELECT ATTRIBUTE
-1.3424 <s> SELECT CLASS
-1.3424 <s> SELECT INTERFACE
-1.3424 <s> SELECT LINK
-1.3424 <s> SELECT METHOD
-1.3424 <s> SELECT NODE
-1.3424 <s> SELECT PACKAGE
-1.3424 <s> SELECT SUBSYSTEM
-1.3424 <s> SELECT USE
-0.3010 <s> SUBSYSTEM </s>
-0.3010 <s> USE CASE
-0.3010 ADD ACTOR </s>
-0.3010 ADD ARTIFACT </s>
-0.3010 ADD ATTRIBUTE </s>
-0.3010 ADD CLASS </s>
-0.3010 ADD INTERFACE </s>
-0.3010 ADD LINK </s>
-0.3010 ADD METHOD </s>
-1.3424 ADD NEW ACTOR
-1.3424 ADD NEW ARTIFACT
-1.3424 ADD NEW ATTRIBUTE
-1.3424 ADD NEW CLASS
-1.3424 ADD NEW INTERFACE
-1.3424 ADD NEW LINK
-1.3424 ADD NEW METHOD
-1.3424 ADD NEW NODE
-1.3424 ADD NEW PACKAGE
-1.3424 ADD NEW SUBSYSTEM
-1.3424 ADD NEW USE
-0.3010 ADD NODE </s>
-0.3010 ADD PACKAGE </s>
-0.3010 ADD SUBSYSTEM </s>
-0.3010 ADD USE CASE
-0.3010 CLEAR SELECTION </s>
-0.3010 NEW ACTOR </s>
-0.3010 NEW ARTIFACT </s>
-0.3010 NEW ATTRIBUTE </s>
-0.3010 NEW CLASS </s>
-0.3010 NEW INTERFACE </s>
-0.3010 NEW LINK </s>
-0.3010 NEW METHOD </s>
-0.3010 NEW NODE </s>
-0.3010 NEW PACKAGE </s>
-0.3010 NEW SUBSYSTEM </s>
-0.3010 NEW USE CASE
-0.3010 REMOVE SELECTED </s>
-0.3010 SELECT ACTOR </s>
-0.3010 SELECT ARTIFACT </s>
-0.3010 SELECT ATTRIBUTE </s>
-0.3010 SELECT CLASS </s>
-0.3010 SELECT INTERFACE </s>
-0.3010 SELECT LINK </s>
-0.3010 SELECT METHOD </s>
-0.3010 SELECT NODE </s>
-0.3010 SELECT PACKAGE </s>
-0.3010 SELECT SUBSYSTEM </s>
-0.3010 SELECT USE CASE
-0.3010 USE CASE </s>

\end\
