Language model created by QuickLM on Sat Sep 27 11:28:51 EDT 2014
Copyright (c) 1996-2010 Carnegie Mellon University and Alexander I. Rudnicky

The model is in standard ARPA format, designed by Doug Paul while he was at MITRE.

The code that was used to produce this language model is available in Open Source.
Please visit http://www.speech.cs.cmu.edu/tools/ for more information

The (fixed) discount mass is 0.5. The backoffs are computed using the ratio method.
This model based on a corpus of 156 sentences and 156 words

\data\
ngram 1=156
ngram 2=309
ngram 3=158

\1-grams:
-0.7809 </s> -0.3010
-0.7809 <s> -0.2207
-2.6730 ABSTRACT -0.2224
-2.9741 ABSTRACTION -0.2224
-2.9741 ACTION -0.2224
-2.9741 ALLOCATE -0.2224
-2.9741 ALLOCATOR -0.2224
-2.9741 ARRAY -0.2224
-2.9741 ASSOCIATION -0.2224
-2.9741 ATTRIBUTE -0.2224
-2.9741 BASE -0.2224
-2.9741 BOOLEAN -0.2224
-2.9741 CALL -0.2224
-2.9741 CLASS -0.2224
-2.9741 CLOSE -0.2224
-2.9741 CODE -0.2224
-2.9741 COLLECTION -0.2224
-2.9741 COMMENT -0.2224
-2.9741 CONDITION -0.2224
-2.9741 CONNECT -0.2224
-2.9741 CONNECTOR -0.2224
-2.9741 CONSTANT -0.2224
-2.9741 CONSTRAINT -0.2224
-2.9741 CONSTRUCTOR -0.2224
-2.9741 CREATE -0.2224
-2.9741 DATA -0.2224
-2.9741 DECLARATION -0.2224
-2.9741 DECLARE -0.2224
-2.9741 DEFAULT -0.2224
-2.9741 DEFINE -0.2224
-2.9741 DEFINITION -0.2224
-2.9741 DELEGATE -0.2224
-2.9741 DELETE -0.2224
-2.9741 DERIVE -0.2224
-2.9741 DERIVED -0.2224
-2.9741 DESELECT -0.2224
-2.9741 DESTINATION -0.2224
-2.9741 DESTRUCTOR -0.2224
-2.9741 DIRECT -0.2224
-2.9741 DIRECTED -0.2224
-2.9741 DISCONNECT -0.2224
-2.9741 DO -0.2224
-2.9741 DOUBLE -0.2224
-2.9741 EDIT -0.2224
-2.9741 ENTRY -0.2224
-2.9741 ENUM -0.2224
-2.9741 EVENT -0.2224
-2.9741 EXCEPTION -0.2224
-2.9741 EXECUTE -0.2224
-2.9741 EXIT -0.2224
-2.9741 EXTRACT -0.2224
-2.9741 FIELD -0.2224
-2.9741 FLOAT -0.2224
-2.9741 FREE -0.2224
-2.9741 FROM -0.2224
-2.9741 FUNCTION -0.2224
-2.9741 GENERATE -0.2224
-2.9741 GENERATION -0.2224
-2.9741 HANDLE -0.2224
-2.9741 HANDLER -0.2224
-2.9741 HAS -0.2224
-2.9741 HASH -0.3001
-2.9741 HAVE -0.2224
-2.9741 HEADER -0.2224
-2.9741 IMPLEMENTATION -0.2224
-2.9741 IMPLEMENTS -0.2224
-2.9741 INCLUDE -0.2224
-2.9741 INCLUDING -0.2224
-2.9741 INHERITANCE -0.2224
-2.9741 INHERITS -0.2224
-2.9741 INTEGER -0.2224
-2.9741 INTERFACE -0.2224
-2.9741 IT -0.2224
-2.9741 KEY -0.2224
-2.9741 KEYS -0.2224
-2.9741 LINKED -0.3001
-2.6730 LIST -0.2224
-2.9741 LOOP -0.2224
-2.9741 MANAGE -0.2224
-2.9741 MANAGEMENT -0.2224
-2.6730 MAP -0.2224
-2.9741 MEMORY -0.2224
-2.9741 METHOD -0.2224
-2.9741 MULTIPLICITY -0.2224
-2.6730 NAME -0.2224
-2.9741 NAMED -0.2224
-2.9741 NEED -0.2224
-2.9741 NEW -0.2224
-2.9741 NEXT -0.2224
-2.9741 NUMBER -0.2224
-2.9741 OBJECT -0.2224
-2.9741 OF -0.2224
-2.9741 OPEN -0.2224
-2.9741 OPERATOR -0.2224
-2.9741 ORDER -0.2224
-2.9741 ORDERED -0.2224
-2.9741 OVERLOAD -0.2224
-2.9741 OVERLOADS -0.2224
-2.9741 OVERRIDE -0.2224
-2.9741 OVERRIDES -0.2224
-2.9741 PACK -0.2224
-2.9741 PACKAGE -0.2224
-2.9741 PARAMETER -0.2224
-2.9741 PARAMETERS -0.2224
-2.9741 PARSE -0.2224
-2.9741 PARSER -0.2224
-2.9741 PREVIOUS -0.2224
-2.9741 PRIVATE -0.2224
-2.9741 PROCEDURE -0.2224
-2.9741 PROTECTED -0.2224
-2.9741 PUBLIC -0.2224
-2.9741 PURE -0.2224
-2.9741 REALIZATION -0.2224
-2.9741 RECEIVE -0.2224
-2.9741 RECEIVER -0.2224
-2.9741 REDO -0.2224
-2.9741 RESET -0.2224
-2.9741 RESOURCE -0.2224
-2.9741 RETURN -0.2224
-2.9741 REVERT -0.2224
-2.9741 ROLLBACK -0.2224
-2.9741 SAVE -0.2224
-2.9741 SELECT -0.2224
-2.9741 SEND -0.2224
-2.9741 SENDER -0.2224
-2.9741 SEQUNCE -0.2224
-2.9741 SET -0.2224
-2.9741 SINGLE -0.2224
-2.9741 SOURCE -0.2224
-2.9741 STACK -0.2224
-2.9741 STATIC -0.2224
-2.9741 STRING -0.2224
-2.9741 STRUCTURE -0.2224
-2.9741 SUBSYSTEM -0.2224
-2.9741 SWITCH -0.2224
-2.9741 SYSTEM -0.2224
-2.9741 TAG -0.2224
-2.9741 THROWS -0.2224
-2.9741 TO -0.2224
-2.9741 TRY -0.2224
-2.9741 TYPE -0.2224
-2.9741 UNDO -0.2224
-2.9741 UNION -0.2224
-2.9741 UNORDERED -0.2224
-2.9741 USE -0.2224
-2.9741 USED -0.2224
-2.9741 USING -0.2224
-2.9741 VALUE -0.2224
-2.9741 VALUES -0.2224
-2.9741 VARIABLE -0.2224
-2.9741 VIRTUAL -0.2224
-2.9741 VISIBILITY -0.2224
-2.9741 VISIBLE -0.2224
-2.9741 WANT -0.2224
-2.9741 WHILE -0.2224
-2.6730 WITH -0.2213

\2-grams:
-2.1931 <s> ABSTRACT 0.0000
-2.4942 <s> ABSTRACTION 0.0000
-2.4942 <s> ACTION 0.0000
-2.4942 <s> ALLOCATE 0.0000
-2.4942 <s> ALLOCATOR 0.0000
-2.4942 <s> ARRAY 0.0000
-2.4942 <s> ASSOCIATION 0.0000
-2.4942 <s> ATTRIBUTE 0.0000
-2.4942 <s> BASE 0.0000
-2.4942 <s> BOOLEAN 0.0000
-2.4942 <s> CALL 0.0000
-2.4942 <s> CLASS 0.0000
-2.4942 <s> CLOSE 0.0000
-2.4942 <s> CODE 0.0000
-2.4942 <s> COLLECTION 0.0000
-2.4942 <s> COMMENT 0.0000
-2.4942 <s> CONDITION 0.0000
-2.4942 <s> CONNECT 0.0000
-2.4942 <s> CONNECTOR 0.0000
-2.4942 <s> CONSTANT 0.0000
-2.4942 <s> CONSTRAINT 0.0000
-2.4942 <s> CONSTRUCTOR 0.0000
-2.4942 <s> CREATE 0.0000
-2.4942 <s> DATA 0.0000
-2.4942 <s> DECLARATION 0.0000
-2.4942 <s> DECLARE 0.0000
-2.4942 <s> DEFAULT 0.0000
-2.4942 <s> DEFINE 0.0000
-2.4942 <s> DEFINITION 0.0000
-2.4942 <s> DELEGATE 0.0000
-2.4942 <s> DELETE 0.0000
-2.4942 <s> DERIVE 0.0000
-2.4942 <s> DERIVED 0.0000
-2.4942 <s> DESELECT 0.0000
-2.4942 <s> DESTINATION 0.0000
-2.4942 <s> DESTRUCTOR 0.0000
-2.4942 <s> DIRECT 0.0000
-2.4942 <s> DIRECTED 0.0000
-2.4942 <s> DISCONNECT 0.0000
-2.4942 <s> DO 0.0000
-2.4942 <s> DOUBLE 0.0000
-2.4942 <s> EDIT 0.0000
-2.4942 <s> ENTRY 0.0000
-2.4942 <s> ENUM 0.0000
-2.4942 <s> EVENT 0.0000
-2.4942 <s> EXCEPTION 0.0000
-2.4942 <s> EXECUTE 0.0000
-2.4942 <s> EXIT 0.0000
-2.4942 <s> EXTRACT 0.0000
-2.4942 <s> FIELD 0.0000
-2.4942 <s> FLOAT 0.0000
-2.4942 <s> FREE 0.0000
-2.4942 <s> FROM 0.0000
-2.4942 <s> FUNCTION 0.0000
-2.4942 <s> GENERATE 0.0000
-2.4942 <s> GENERATION 0.0000
-2.4942 <s> HANDLE 0.0000
-2.4942 <s> HANDLER 0.0000
-2.4942 <s> HAS 0.0000
-2.4942 <s> HASH 0.0000
-2.4942 <s> HAVE 0.0000
-2.4942 <s> HEADER 0.0000
-2.4942 <s> IMPLEMENTATION 0.0000
-2.4942 <s> IMPLEMENTS 0.0000
-2.4942 <s> INCLUDE 0.0000
-2.4942 <s> INCLUDING 0.0000
-2.4942 <s> INHERITANCE 0.0000
-2.4942 <s> INHERITS 0.0000
-2.4942 <s> INTEGER 0.0000
-2.4942 <s> INTERFACE 0.0000
-2.4942 <s> IT 0.0000
-2.4942 <s> KEY 0.0000
-2.4942 <s> KEYS 0.0000
-2.4942 <s> LINKED 0.0000
-2.4942 <s> LIST 0.0000
-2.4942 <s> LOOP 0.0000
-2.4942 <s> MANAGE 0.0000
-2.4942 <s> MANAGEMENT 0.0000
-2.4942 <s> MAP 0.0000
-2.4942 <s> MEMORY 0.0000
-2.4942 <s> METHOD 0.0000
-2.4942 <s> MULTIPLICITY 0.0000
-2.4942 <s> NAME 0.0000
-2.4942 <s> NAMED 0.0000
-2.4942 <s> NEED 0.0000
-2.4942 <s> NEW 0.0000
-2.4942 <s> NEXT 0.0000
-2.4942 <s> NUMBER 0.0000
-2.4942 <s> OBJECT 0.0000
-2.4942 <s> OF 0.0000
-2.4942 <s> OPEN 0.0000
-2.4942 <s> OPERATOR 0.0000
-2.4942 <s> ORDER 0.0000
-2.4942 <s> ORDERED 0.0000
-2.4942 <s> OVERLOAD 0.0000
-2.4942 <s> OVERLOADS 0.0000
-2.4942 <s> OVERRIDE 0.0000
-2.4942 <s> OVERRIDES 0.0000
-2.4942 <s> PACK 0.0000
-2.4942 <s> PACKAGE 0.0000
-2.4942 <s> PARAMETER 0.0000
-2.4942 <s> PARAMETERS 0.0000
-2.4942 <s> PARSE 0.0000
-2.4942 <s> PARSER 0.0000
-2.4942 <s> PREVIOUS 0.0000
-2.4942 <s> PRIVATE 0.0000
-2.4942 <s> PROCEDURE 0.0000
-2.4942 <s> PROTECTED 0.0000
-2.4942 <s> PUBLIC 0.0000
-2.4942 <s> PURE 0.0000
-2.4942 <s> REALIZATION 0.0000
-2.4942 <s> RECEIVE 0.0000
-2.4942 <s> RECEIVER 0.0000
-2.4942 <s> REDO 0.0000
-2.4942 <s> RESET 0.0000
-2.4942 <s> RESOURCE 0.0000
-2.4942 <s> RETURN 0.0000
-2.4942 <s> REVERT 0.0000
-2.4942 <s> ROLLBACK 0.0000
-2.4942 <s> SAVE 0.0000
-2.4942 <s> SELECT 0.0000
-2.4942 <s> SEND 0.0000
-2.4942 <s> SENDER 0.0000
-2.4942 <s> SEQUNCE 0.0000
-2.4942 <s> SET 0.0000
-2.4942 <s> SINGLE 0.0000
-2.4942 <s> SOURCE 0.0000
-2.4942 <s> STACK 0.0000
-2.4942 <s> STATIC 0.0000
-2.4942 <s> STRING 0.0000
-2.4942 <s> STRUCTURE 0.0000
-2.4942 <s> SUBSYSTEM 0.0000
-2.4942 <s> SWITCH 0.0000
-2.4942 <s> SYSTEM 0.0000
-2.4942 <s> TAG 0.0000
-2.4942 <s> THROWS 0.0000
-2.4942 <s> TO 0.0000
-2.4942 <s> TRY 0.0000
-2.4942 <s> TYPE 0.0000
-2.4942 <s> UNDO 0.0000
-2.4942 <s> UNION 0.0000
-2.4942 <s> UNORDERED 0.0000
-2.4942 <s> USE 0.0000
-2.4942 <s> USED 0.0000
-2.4942 <s> USING 0.0000
-2.4942 <s> VALUE 0.0000
-2.4942 <s> VALUES 0.0000
-2.4942 <s> VARIABLE 0.0000
-2.4942 <s> VIRTUAL 0.0000
-2.4942 <s> VISIBILITY 0.0000
-2.4942 <s> VISIBLE 0.0000
-2.4942 <s> WANT 0.0000
-2.4942 <s> WHILE 0.0000
-2.1931 <s> WITH 0.0000
-0.3010 ABSTRACT </s> -0.3010
-0.3010 ABSTRACTION </s> -0.3010
-0.3010 ACTION </s> -0.3010
-0.3010 ALLOCATE </s> -0.3010
-0.3010 ALLOCATOR </s> -0.3010
-0.3010 ARRAY </s> -0.3010
-0.3010 ASSOCIATION </s> -0.3010
-0.3010 ATTRIBUTE </s> -0.3010
-0.3010 BASE </s> -0.3010
-0.3010 BOOLEAN </s> -0.3010
-0.3010 CALL </s> -0.3010
-0.3010 CLASS </s> -0.3010
-0.3010 CLOSE </s> -0.3010
-0.3010 CODE </s> -0.3010
-0.3010 COLLECTION </s> -0.3010
-0.3010 COMMENT </s> -0.3010
-0.3010 CONDITION </s> -0.3010
-0.3010 CONNECT </s> -0.3010
-0.3010 CONNECTOR </s> -0.3010
-0.3010 CONSTANT </s> -0.3010
-0.3010 CONSTRAINT </s> -0.3010
-0.3010 CONSTRUCTOR </s> -0.3010
-0.3010 CREATE </s> -0.3010
-0.3010 DATA </s> -0.3010
-0.3010 DECLARATION </s> -0.3010
-0.3010 DECLARE </s> -0.3010
-0.3010 DEFAULT </s> -0.3010
-0.3010 DEFINE </s> -0.3010
-0.3010 DEFINITION </s> -0.3010
-0.3010 DELEGATE </s> -0.3010
-0.3010 DELETE </s> -0.3010
-0.3010 DERIVE </s> -0.3010
-0.3010 DERIVED </s> -0.3010
-0.3010 DESELECT </s> -0.3010
-0.3010 DESTINATION </s> -0.3010
-0.3010 DESTRUCTOR </s> -0.3010
-0.3010 DIRECT </s> -0.3010
-0.3010 DIRECTED </s> -0.3010
-0.3010 DISCONNECT </s> -0.3010
-0.3010 DO </s> -0.3010
-0.3010 DOUBLE </s> -0.3010
-0.3010 EDIT </s> -0.3010
-0.3010 ENTRY </s> -0.3010
-0.3010 ENUM </s> -0.3010
-0.3010 EVENT </s> -0.3010
-0.3010 EXCEPTION </s> -0.3010
-0.3010 EXECUTE </s> -0.3010
-0.3010 EXIT </s> -0.3010
-0.3010 EXTRACT </s> -0.3010
-0.3010 FIELD </s> -0.3010
-0.3010 FLOAT </s> -0.3010
-0.3010 FREE </s> -0.3010
-0.3010 FROM </s> -0.3010
-0.3010 FUNCTION </s> -0.3010
-0.3010 GENERATE </s> -0.3010
-0.3010 GENERATION </s> -0.3010
-0.3010 HANDLE </s> -0.3010
-0.3010 HANDLER </s> -0.3010
-0.3010 HAS </s> -0.3010
-0.3010 HASH MAP 0.0000
-0.3010 HAVE </s> -0.3010
-0.3010 HEADER </s> -0.3010
-0.3010 IMPLEMENTATION </s> -0.3010
-0.3010 IMPLEMENTS </s> -0.3010
-0.3010 INCLUDE </s> -0.3010
-0.3010 INCLUDING </s> -0.3010
-0.3010 INHERITANCE </s> -0.3010
-0.3010 INHERITS </s> -0.3010
-0.3010 INTEGER </s> -0.3010
-0.3010 INTERFACE </s> -0.3010
-0.3010 IT </s> -0.3010
-0.3010 KEY </s> -0.3010
-0.3010 KEYS </s> -0.3010
-0.3010 LINKED LIST 0.0000
-0.3010 LIST </s> -0.3010
-0.3010 LOOP </s> -0.3010
-0.3010 MANAGE </s> -0.3010
-0.3010 MANAGEMENT </s> -0.3010
-0.3010 MAP </s> -0.3010
-0.3010 MEMORY </s> -0.3010
-0.3010 METHOD </s> -0.3010
-0.3010 MULTIPLICITY </s> -0.3010
-0.3010 NAME </s> -0.3010
-0.3010 NAMED </s> -0.3010
-0.3010 NEED </s> -0.3010
-0.3010 NEW </s> -0.3010
-0.3010 NEXT </s> -0.3010
-0.3010 NUMBER </s> -0.3010
-0.3010 OBJECT </s> -0.3010
-0.3010 OF </s> -0.3010
-0.3010 OPEN </s> -0.3010
-0.3010 OPERATOR </s> -0.3010
-0.3010 ORDER </s> -0.3010
-0.3010 ORDERED </s> -0.3010
-0.3010 OVERLOAD </s> -0.3010
-0.3010 OVERLOADS </s> -0.3010
-0.3010 OVERRIDE </s> -0.3010
-0.3010 OVERRIDES </s> -0.3010
-0.3010 PACK </s> -0.3010
-0.3010 PACKAGE </s> -0.3010
-0.3010 PARAMETER </s> -0.3010
-0.3010 PARAMETERS </s> -0.3010
-0.3010 PARSE </s> -0.3010
-0.3010 PARSER </s> -0.3010
-0.3010 PREVIOUS </s> -0.3010
-0.3010 PRIVATE </s> -0.3010
-0.3010 PROCEDURE </s> -0.3010
-0.3010 PROTECTED </s> -0.3010
-0.3010 PUBLIC </s> -0.3010
-0.3010 PURE </s> -0.3010
-0.3010 REALIZATION </s> -0.3010
-0.3010 RECEIVE </s> -0.3010
-0.3010 RECEIVER </s> -0.3010
-0.3010 REDO </s> -0.3010
-0.3010 RESET </s> -0.3010
-0.3010 RESOURCE </s> -0.3010
-0.3010 RETURN </s> -0.3010
-0.3010 REVERT </s> -0.3010
-0.3010 ROLLBACK </s> -0.3010
-0.3010 SAVE </s> -0.3010
-0.3010 SELECT </s> -0.3010
-0.3010 SEND </s> -0.3010
-0.3010 SENDER </s> -0.3010
-0.3010 SEQUNCE </s> -0.3010
-0.3010 SET </s> -0.3010
-0.3010 SINGLE </s> -0.3010
-0.3010 SOURCE </s> -0.3010
-0.3010 STACK </s> -0.3010
-0.3010 STATIC </s> -0.3010
-0.3010 STRING </s> -0.3010
-0.3010 STRUCTURE </s> -0.3010
-0.3010 SUBSYSTEM </s> -0.3010
-0.3010 SWITCH </s> -0.3010
-0.3010 SYSTEM </s> -0.3010
-0.3010 TAG </s> -0.3010
-0.3010 THROWS </s> -0.3010
-0.3010 TO </s> -0.3010
-0.3010 TRY </s> -0.3010
-0.3010 TYPE </s> -0.3010
-0.3010 UNDO </s> -0.3010
-0.3010 UNION </s> -0.3010
-0.3010 UNORDERED </s> -0.3010
-0.3010 USE </s> -0.3010
-0.3010 USED </s> -0.3010
-0.3010 USING </s> -0.3010
-0.3010 VALUE </s> -0.3010
-0.3010 VALUES </s> -0.3010
-0.3010 VARIABLE </s> -0.3010
-0.3010 VIRTUAL </s> -0.3010
-0.3010 VISIBILITY </s> -0.3010
-0.3010 VISIBLE </s> -0.3010
-0.3010 WANT </s> -0.3010
-0.3010 WHILE </s> -0.3010
-0.6021 WITH </s> -0.3010
-0.6021 WITH NAME 0.0000

\3-grams:
-0.3010 <s> ABSTRACT </s>
-0.3010 <s> ABSTRACTION </s>
-0.3010 <s> ACTION </s>
-0.3010 <s> ALLOCATE </s>
-0.3010 <s> ALLOCATOR </s>
-0.3010 <s> ARRAY </s>
-0.3010 <s> ASSOCIATION </s>
-0.3010 <s> ATTRIBUTE </s>
-0.3010 <s> BASE </s>
-0.3010 <s> BOOLEAN </s>
-0.3010 <s> CALL </s>
-0.3010 <s> CLASS </s>
-0.3010 <s> CLOSE </s>
-0.3010 <s> CODE </s>
-0.3010 <s> COLLECTION </s>
-0.3010 <s> COMMENT </s>
-0.3010 <s> CONDITION </s>
-0.3010 <s> CONNECT </s>
-0.3010 <s> CONNECTOR </s>
-0.3010 <s> CONSTANT </s>
-0.3010 <s> CONSTRAINT </s>
-0.3010 <s> CONSTRUCTOR </s>
-0.3010 <s> CREATE </s>
-0.3010 <s> DATA </s>
-0.3010 <s> DECLARATION </s>
-0.3010 <s> DECLARE </s>
-0.3010 <s> DEFAULT </s>
-0.3010 <s> DEFINE </s>
-0.3010 <s> DEFINITION </s>
-0.3010 <s> DELEGATE </s>
-0.3010 <s> DELETE </s>
-0.3010 <s> DERIVE </s>
-0.3010 <s> DERIVED </s>
-0.3010 <s> DESELECT </s>
-0.3010 <s> DESTINATION </s>
-0.3010 <s> DESTRUCTOR </s>
-0.3010 <s> DIRECT </s>
-0.3010 <s> DIRECTED </s>
-0.3010 <s> DISCONNECT </s>
-0.3010 <s> DO </s>
-0.3010 <s> DOUBLE </s>
-0.3010 <s> EDIT </s>
-0.3010 <s> ENTRY </s>
-0.3010 <s> ENUM </s>
-0.3010 <s> EVENT </s>
-0.3010 <s> EXCEPTION </s>
-0.3010 <s> EXECUTE </s>
-0.3010 <s> EXIT </s>
-0.3010 <s> EXTRACT </s>
-0.3010 <s> FIELD </s>
-0.3010 <s> FLOAT </s>
-0.3010 <s> FREE </s>
-0.3010 <s> FROM </s>
-0.3010 <s> FUNCTION </s>
-0.3010 <s> GENERATE </s>
-0.3010 <s> GENERATION </s>
-0.3010 <s> HANDLE </s>
-0.3010 <s> HANDLER </s>
-0.3010 <s> HAS </s>
-0.3010 <s> HASH MAP
-0.3010 <s> HAVE </s>
-0.3010 <s> HEADER </s>
-0.3010 <s> IMPLEMENTATION </s>
-0.3010 <s> IMPLEMENTS </s>
-0.3010 <s> INCLUDE </s>
-0.3010 <s> INCLUDING </s>
-0.3010 <s> INHERITANCE </s>
-0.3010 <s> INHERITS </s>
-0.3010 <s> INTEGER </s>
-0.3010 <s> INTERFACE </s>
-0.3010 <s> IT </s>
-0.3010 <s> KEY </s>
-0.3010 <s> KEYS </s>
-0.3010 <s> LINKED LIST
-0.3010 <s> LIST </s>
-0.3010 <s> LOOP </s>
-0.3010 <s> MANAGE </s>
-0.3010 <s> MANAGEMENT </s>
-0.3010 <s> MAP </s>
-0.3010 <s> MEMORY </s>
-0.3010 <s> METHOD </s>
-0.3010 <s> MULTIPLICITY </s>
-0.3010 <s> NAME </s>
-0.3010 <s> NAMED </s>
-0.3010 <s> NEED </s>
-0.3010 <s> NEW </s>
-0.3010 <s> NEXT </s>
-0.3010 <s> NUMBER </s>
-0.3010 <s> OBJECT </s>
-0.3010 <s> OF </s>
-0.3010 <s> OPEN </s>
-0.3010 <s> OPERATOR </s>
-0.3010 <s> ORDER </s>
-0.3010 <s> ORDERED </s>
-0.3010 <s> OVERLOAD </s>
-0.3010 <s> OVERLOADS </s>
-0.3010 <s> OVERRIDE </s>
-0.3010 <s> OVERRIDES </s>
-0.3010 <s> PACK </s>
-0.3010 <s> PACKAGE </s>
-0.3010 <s> PARAMETER </s>
-0.3010 <s> PARAMETERS </s>
-0.3010 <s> PARSE </s>
-0.3010 <s> PARSER </s>
-0.3010 <s> PREVIOUS </s>
-0.3010 <s> PRIVATE </s>
-0.3010 <s> PROCEDURE </s>
-0.3010 <s> PROTECTED </s>
-0.3010 <s> PUBLIC </s>
-0.3010 <s> PURE </s>
-0.3010 <s> REALIZATION </s>
-0.3010 <s> RECEIVE </s>
-0.3010 <s> RECEIVER </s>
-0.3010 <s> REDO </s>
-0.3010 <s> RESET </s>
-0.3010 <s> RESOURCE </s>
-0.3010 <s> RETURN </s>
-0.3010 <s> REVERT </s>
-0.3010 <s> ROLLBACK </s>
-0.3010 <s> SAVE </s>
-0.3010 <s> SELECT </s>
-0.3010 <s> SEND </s>
-0.3010 <s> SENDER </s>
-0.3010 <s> SEQUNCE </s>
-0.3010 <s> SET </s>
-0.3010 <s> SINGLE </s>
-0.3010 <s> SOURCE </s>
-0.3010 <s> STACK </s>
-0.3010 <s> STATIC </s>
-0.3010 <s> STRING </s>
-0.3010 <s> STRUCTURE </s>
-0.3010 <s> SUBSYSTEM </s>
-0.3010 <s> SWITCH </s>
-0.3010 <s> SYSTEM </s>
-0.3010 <s> TAG </s>
-0.3010 <s> THROWS </s>
-0.3010 <s> TO </s>
-0.3010 <s> TRY </s>
-0.3010 <s> TYPE </s>
-0.3010 <s> UNDO </s>
-0.3010 <s> UNION </s>
-0.3010 <s> UNORDERED </s>
-0.3010 <s> USE </s>
-0.3010 <s> USED </s>
-0.3010 <s> USING </s>
-0.3010 <s> VALUE </s>
-0.3010 <s> VALUES </s>
-0.3010 <s> VARIABLE </s>
-0.3010 <s> VIRTUAL </s>
-0.3010 <s> VISIBILITY </s>
-0.3010 <s> VISIBLE </s>
-0.3010 <s> WANT </s>
-0.3010 <s> WHILE </s>
-0.6021 <s> WITH </s>
-0.6021 <s> WITH NAME
-0.3010 HASH MAP </s>
-0.3010 LINKED LIST </s>
-0.3010 WITH NAME </s>

\end\
